// Neural Network File Format by Kyle Julian, Stanford 2016
6,5,5,30,
5,30,30,30,30,30,5,
0.000,
-36655.999999,-36656.000000,-3.141600,100.000000,0.000000,
36656.000000,36656.000000,3.141600,472.000000,1200.000000,
-431.467101,-0.000000,0.000000,249.000000,532.000000,9.330048,
73311.999999,73312.000000,6.283200,372.000000,1200.000000,423.773936,
-4.50058e-01,1.39308e+00,-4.96553e-01,-1.24186e-01,3.55054e-02,
8.10312e-02,-1.18203e-01,-3.69019e-01,-1.93619e-01,5.43506e-03,
4.11317e-01,-2.36758e-01,-3.53585e-02,-7.89663e-02,5.58457e-01,
-1.51001e-01,-1.97831e+00,3.06352e-01,1.23382e-02,-9.16104e-03,
-7.48904e-01,5.03666e-01,6.15124e-03,3.98404e-02,6.10878e-01,
3.87181e-01,3.91268e-01,1.10447e+00,-4.15683e-02,9.10488e-02,
1.23635e+00,-2.69571e-01,-4.27637e-01,-3.51178e-02,1.76262e-02,
-4.86114e-03,3.83595e-01,3.63142e-01,2.68541e-01,-7.30005e-01,
1.22829e-01,6.13755e-02,2.23434e-01,-4.25783e-03,2.55119e-01,
4.08611e-01,-2.70053e-01,-1.73415e-01,5.89067e-02,1.38815e-01,
7.49134e-01,1.72192e-01,-9.47462e-01,-3.00712e-02,6.74183e-02,
-7.49230e-01,1.44766e-01,1.19886e+00,4.17497e-02,5.64585e-02,
1.42692e+00,5.07015e-01,-1.18444e-02,3.30368e-03,-2.61005e-02,
3.94411e-01,-4.46352e-01,-4.71956e-01,-1.56005e-02,3.40684e-03,
2.08589e-01,1.03419e+00,-2.40541e-01,-5.45754e-03,-7.16401e-01,
-3.91395e-01,-1.25774e+00,-1.75491e-02,5.91554e-02,-7.85759e-01,
9.70124e-02,-5.75510e-02,-1.72327e-02,7.95792e-02,3.23196e-01,
1.26002e-01,7.78248e-01,1.13652e+00,1.16311e-01,-1.86749e-01,
-2.75990e-01,1.28617e-01,-1.15808e+00,-2.10184e-02,3.78442e-01,
-2.88047e-01,-2.06353e-02,-4.76463e-02,-1.76341e-01,2.46634e-01,
5.32602e-01,8.64869e-01,1.13895e-01,-1.34730e-01,1.21248e-01,
-9.88165e-03,2.31266e-01,-2.72255e-01,-1.35116e-02,6.15034e-01,
4.32029e-01,-8.94565e-01,-7.46645e-01,-1.71100e-02,1.03342e-02,
5.58418e-01,2.32346e-02,8.64944e-01,-2.67031e-02,5.47790e-02,
2.26106e-01,-2.30471e+00,1.77642e-01,2.46650e-02,1.65862e-02,
-2.40390e-01,2.36958e-01,-9.39472e-01,3.17532e-02,2.09218e-02,
-1.50593e+00,9.55929e-01,1.47492e-01,2.35337e-02,-6.29624e-02,
-1.46485e-01,-3.30698e-02,-8.77338e-02,2.33808e-01,-3.20712e-01,
-6.39633e-01,-1.31727e+00,-3.12117e-01,-4.57725e-02,1.23405e-01,
1.74082e-01,-3.53212e-01,1.22965e+00,-2.06175e-02,2.43864e-01,
1.63037e-01,
8.59332e-02,
2.14672e-01,
-7.24542e-02,
3.01890e-01,
2.57972e-01,
7.08392e-02,
-5.50367e-04,
1.65776e-01,
1.59186e-01,
-4.71022e-01,
-3.99763e-02,
-5.08578e-02,
2.53196e-01,
-2.60546e-01,
-2.68091e-01,
1.55776e-01,
-1.10481e-01,
-1.09330e-01,
1.33484e-01,
1.22291e-01,
3.26079e-01,
3.50026e-02,
-4.68263e-01,
1.28419e-01,
-2.55550e-01,
-2.11431e-03,
1.26084e-01,
7.40062e-02,
-3.75494e-01,
1.48224e-01,-1.71020e-01,-4.22286e-01,1.37620e-01,-3.93547e-02,-1.57609e-01,2.98497e-01,1.13278e+00,-4.09868e-01,-5.94220e-02,2.39386e-01,2.76933e-01,-3.34386e-02,-4.30721e-02,2.43788e-01,-5.42928e-01,1.77446e-01,-1.10050e+00,9.62853e-01,-2.35167e-01,1.49414e-01,-8.36097e-02,3.46072e-01,5.34517e-01,-4.53860e-01,6.30946e-01,2.42986e-01,1.02090e-01,-5.26621e-01,2.06244e-01,
3.00208e-01,-2.89914e-01,-1.08474e-01,5.51323e-01,1.75239e-01,-8.59757e-01,3.82491e-01,1.25127e-01,-1.41007e-01,-8.39875e-02,-3.46140e-01,-3.50759e-01,-1.04508e-01,-1.06452e-01,-7.89776e-01,5.98276e-01,-1.65010e-01,4.02218e-01,2.49700e-01,1.72940e-01,1.55696e-01,3.78108e-01,-3.06958e-01,2.19104e+00,-7.96122e-01,-8.80386e-01,-8.88935e-02,2.20067e-01,4.94692e-01,6.29316e-01,
2.38045e-02,-3.83701e-01,-8.46795e-02,-2.65275e-01,6.02214e-01,4.66688e-02,-1.08898e-01,4.11244e-01,1.03324e-01,3.00378e-01,2.67792e-01,2.76298e-01,-6.20102e-02,1.56497e-01,-6.30186e-01,4.13541e-01,-2.13351e-01,-1.17712e-01,6.02306e-01,-3.38046e-01,1.32535e-01,9.19100e-02,-1.08813e-01,-1.74815e-02,1.06756e-01,-1.87897e-01,-5.29696e-01,4.83097e-01,1.09525e-01,5.41980e-01,
8.42801e-02,1.32421e-01,1.49906e-01,-2.10562e+00,-1.75785e-01,-1.91698e-02,-5.27051e-02,7.82277e-02,2.08249e-01,-3.77990e-02,7.04340e-01,-4.00839e-01,-1.62042e-01,-2.71429e-01,1.78522e-01,-1.50830e-01,3.74310e-01,9.71888e-01,8.38253e-02,1.96358e-01,2.80887e-01,-8.30523e-03,-3.42143e-01,-1.88560e+00,-5.50875e-01,7.75185e-01,-2.43916e-01,1.54669e-02,-1.50275e+00,2.42152e-02,
-6.58243e-02,4.65269e-02,-5.72482e-01,-8.33162e-01,8.03231e-02,-2.06173e-01,-5.52840e-02,2.22479e-01,-1.03982e+00,-3.00973e-02,-4.70971e-01,2.34057e-02,1.43516e-01,-1.71972e-01,6.93934e-01,4.94005e-01,-3.24074e-01,6.74209e-01,-2.37136e-01,-5.36215e-01,1.53869e-01,-5.26575e-01,3.91358e-01,5.28549e-01,-3.03118e+00,-1.01045e+00,-7.00836e-01,-9.72658e-02,1.00446e+00,-2.28751e-02,
4.40939e-02,-8.21497e-02,1.60857e-01,-6.04535e-03,-3.26493e-02,-3.17945e-01,1.44972e-01,1.24238e-01,1.42211e-01,1.71759e-01,-2.10348e-01,1.12702e-01,7.43213e-03,-1.31628e-01,-2.58189e-01,7.61410e-02,-1.02639e-01,-2.67879e-01,-9.30710e-02,-3.32582e-01,1.32242e-01,-3.37986e-01,1.40133e-01,1.80200e-01,-2.32704e-01,-1.70512e-01,2.06780e-01,-3.27334e-01,-9.24760e-02,-5.44264e-02,
-1.09672e-01,3.73502e-02,-1.81662e-03,-1.52638e+00,2.30044e-01,4.77094e-02,4.72686e-01,1.25532e-01,1.18620e-01,-2.90341e-01,-4.73789e-01,-1.47624e-01,-1.07395e+00,-2.93830e-01,1.16778e+00,-2.15371e-01,5.92392e-02,6.61783e-01,-6.16155e-01,-5.98644e-03,2.87708e-01,-2.91041e-01,-7.06756e-01,3.93495e-01,6.62707e-01,1.01761e+00,-1.03973e+00,2.32155e-01,7.97103e-01,1.04136e-01,
4.78021e-01,-1.51950e-01,-4.32778e-01,7.59028e-01,5.12398e-01,-2.43893e-02,2.42946e-01,1.55506e-01,-1.58387e-01,-3.25627e-01,5.62557e-01,5.88273e-01,2.34437e-01,-6.19328e-01,1.44134e-02,3.81925e-01,3.63423e-02,-2.70629e-01,2.24340e-01,-6.50665e-02,1.78168e-01,-8.67956e-02,-3.79866e-01,2.90124e-01,-1.67282e-01,2.86910e-01,6.86447e-02,1.73102e-01,-8.67475e-02,-3.76204e-02,
-5.50901e-02,-1.21115e-01,-8.17299e-02,-3.63470e-02,1.52922e-01,1.17382e-01,2.47196e-02,3.80620e-02,-6.08203e-02,5.37691e-01,-6.20356e-01,3.23718e-03,2.79628e-01,-1.48060e-01,-3.06378e-01,3.56232e-02,1.08279e-01,-7.70024e-02,8.57220e-02,-1.93174e-01,-3.91392e-01,1.99699e-01,6.48150e-01,7.30113e-01,3.96266e-01,-1.28570e+00,2.93058e-01,9.69680e-02,3.89159e-01,-3.82252e-01,
2.15367e-02,3.69323e-01,1.70451e-01,-1.37818e-01,1.84653e-01,-2.80607e-01,-5.03875e-01,-9.71415e-02,2.13636e-01,1.69335e-01,1.96178e-01,-1.16422e-01,-8.63064e-02,3.95677e-01,-1.10992e-01,-4.63445e-01,-3.39783e-01,-2.76751e-01,1.24759e-01,2.81621e-01,-4.27735e-01,1.85328e-01,-5.82496e-02,1.09354e+00,3.81375e-01,8.33704e-01,1.05227e-01,1.92206e-01,-3.20349e-01,-6.08026e-01,
2.46237e-01,-1.70801e-01,-1.98051e-01,-5.75605e-01,-3.98587e+00,2.96561e-01,3.74257e-01,-5.39732e-02,-8.32527e-02,-5.81194e-02,-4.01452e-01,-2.05834e-01,-5.32185e-01,2.16828e-01,1.22226e+00,-7.32233e-01,6.38179e-01,1.34115e-01,-5.26987e-01,-1.32258e-01,-3.37287e-01,-1.39470e+00,3.33030e-01,-1.92131e-01,1.87227e-01,1.13297e-01,5.67364e-01,-1.09512e-01,1.06790e-01,-1.16565e-01,
-5.95177e-01,2.84859e-01,7.50398e-02,-2.28187e-01,5.32073e-02,3.56190e-01,4.10117e-01,4.64127e-01,-3.42416e-02,-1.48356e-01,-1.05662e+00,-1.00497e+00,3.15982e-01,1.61202e-01,-4.20029e-01,-4.17498e-01,-2.22658e-02,2.56955e-01,-2.54609e-01,-1.67349e-01,1.06220e-01,1.14939e-01,2.95616e-01,-2.88352e-01,-1.61681e-01,-8.20758e-01,6.79868e-01,-6.29225e-02,5.57839e-01,-6.35293e-01,
2.76992e-01,7.48785e-02,4.10239e-01,5.19849e-01,-6.24685e-01,3.21536e-01,1.24148e-01,-1.18658e-01,5.11792e-01,3.09490e-01,3.86679e-01,7.14056e-03,-3.35153e-01,-2.55088e-01,1.12820e-01,-3.48761e-01,1.76674e-01,1.48280e-01,-2.82993e-01,1.66870e-01,3.78900e-01,-6.04520e-02,2.03514e-01,5.91510e-02,-6.02013e-01,-8.75843e-01,-1.58940e-01,2.44110e-01,-1.30071e-01,-3.01149e-02,
-7.67657e-02,4.76501e-02,-9.76839e-02,-6.54695e-01,-2.96129e-01,-8.09931e-01,-4.25618e-01,4.57194e-01,-5.13595e-02,2.80733e-01,-1.25205e+00,-1.34150e+00,4.32574e-01,2.17811e-01,-3.59841e-01,-3.46678e-01,-7.08453e-02,-1.59912e+00,7.71945e-02,3.69683e-01,-3.75655e-01,3.96488e-01,1.73078e-01,1.56036e+00,3.16155e-01,1.03075e+00,2.99375e-01,4.35191e-01,6.33604e-01,1.10097e+00,
6.21115e-01,-3.20581e-01,1.49689e-01,7.39720e-01,2.65758e-01,3.42331e-03,-4.23808e-01,-4.88287e-01,-1.83270e-01,8.40444e-02,7.22753e-01,2.63830e-01,1.56293e-01,-1.29723e-01,1.37137e-01,-3.33877e-01,-3.99260e-02,2.25865e-01,2.13716e-01,-2.52287e-01,-5.26274e-01,-1.96372e-01,-4.60278e-01,4.55888e-01,-2.50235e-01,1.24080e+00,-2.21331e-02,1.96473e-01,-1.74530e-01,2.26705e-01,
-1.97549e-01,-2.69163e-01,2.03018e-01,-6.64616e-02,-1.41105e-01,4.38905e-01,1.19990e-01,-3.24148e-01,1.43788e-01,3.44243e-01,-7.66775e-01,-3.26740e-01,-5.64504e-02,2.65430e-01,2.34890e-01,-3.76138e-01,4.41609e-01,-3.85914e-01,-7.20533e-01,1.52709e-01,1.12824e-01,3.77981e-01,7.90652e-02,-1.14883e+00,-2.00504e-01,-7.25538e-02,5.73738e-03,3.43128e-02,-2.24016e-01,-3.94898e-01,
3.70973e-01,3.51851e-02,1.93567e-01,-7.28797e-03,8.52982e-02,-4.95213e-01,-5.12763e-01,-2.11055e-01,-2.87815e-01,-2.65127e-01,2.83148e-01,3.08501e-01,-8.29023e-01,1.96237e-01,-4.45277e-01,1.52471e-01,6.21495e-02,4.52494e-01,-1.88392e-01,4.60397e-01,-7.62255e-02,3.53497e-01,-5.61747e-01,1.75905e+00,4.08645e-02,1.04000e+00,-5.32285e-01,2.13904e-03,-1.85755e-01,-2.82582e-01,
4.24000e-01,-5.04913e-01,-7.38974e-02,1.43366e-01,-3.51296e-01,2.92044e-01,6.50096e-02,4.15916e-01,8.91594e-02,1.23329e-01,6.02240e-01,-1.52554e-02,3.17298e-01,1.39702e-01,1.97348e-01,3.51726e-01,2.51665e-01,-3.40558e-01,8.02429e-01,-2.83113e-01,3.29359e-01,-3.53502e-01,-6.35655e-02,2.67516e-01,4.66473e-01,5.05764e-01,1.62092e-01,4.52650e-01,-1.47086e-01,9.27594e-01,
1.44410e-01,-1.62777e-01,-1.11827e-01,-2.92086e-01,4.90643e-01,4.35543e-01,2.47161e-01,-9.49779e-02,3.61375e-02,-2.08322e-01,-5.15057e-02,6.01276e-01,2.23784e-01,-2.74992e-01,-1.80509e-01,-6.96076e-01,-2.81511e-01,-4.86414e-01,-8.15546e-01,1.41365e-01,5.52448e-01,1.88452e-02,1.46725e-01,-7.98534e-01,1.50544e-01,-7.99533e-01,4.08794e-01,8.54108e-02,3.27393e-01,-4.85859e-01,
-4.29986e-01,4.17041e-01,-9.21174e-02,-2.92415e-02,9.49244e-02,6.75287e-01,4.42875e-01,-3.80424e-01,3.03343e-01,-2.07222e-02,-5.58755e-01,-7.93446e-02,-1.43613e-01,-1.89248e-01,-5.51414e-02,1.20250e+00,-1.48927e-01,-4.01300e-02,-3.71751e-01,2.76557e-01,4.38704e-01,1.30786e-01,6.57306e-01,-6.20231e-01,-8.69321e-03,-4.51528e-01,2.62917e-01,-3.50043e-01,-2.84161e-01,-6.86835e-01,
-1.72477e-01,-7.75408e-02,-1.97954e-01,4.55319e-02,3.37302e-01,4.09300e-02,5.49320e-01,2.02187e-01,-2.55797e-01,1.06935e-01,-8.47010e-01,-4.26492e-01,-3.63175e-02,3.07763e-01,-4.80670e-01,6.76856e-01,-4.62706e-02,-1.07473e-01,2.86824e-02,-3.77724e-01,1.47850e-01,1.04253e-01,2.52979e-01,-4.28090e-01,-3.52862e-01,-1.89997e-01,-3.99120e-02,2.62125e-01,9.40376e-02,5.82490e-01,
-2.82649e-01,6.42611e-02,-3.27681e-01,6.75866e-01,1.21010e-01,2.88515e-01,2.62417e-01,-1.47147e-02,-2.82934e-01,-6.98277e-02,5.89405e-01,-1.65018e-01,2.87095e-01,-1.40312e-01,8.46481e-01,-9.97406e-01,-6.23432e-01,-3.29403e-01,-1.80990e-01,-6.24190e-01,4.71003e-01,-4.17849e-01,5.63871e-02,-8.32594e-01,-4.64309e-01,4.80976e-02,7.48828e-01,2.69753e-01,3.94901e-01,-1.06992e-01,
-6.69327e-01,5.13181e-04,4.97691e-01,-1.35268e-01,-2.64668e-01,8.15697e-02,6.18743e-01,3.89796e-01,1.62511e-01,2.39164e-01,-1.73188e-01,1.07299e-01,-1.46114e+00,6.26559e-02,3.53442e-02,-3.04595e-01,-1.33342e-01,-3.57643e-01,9.77870e-02,-2.94364e-01,1.59828e-01,-3.38008e-01,5.07417e-01,4.75835e-02,-6.67889e-01,2.93712e-01,-1.13339e+00,-1.39724e-01,-1.52933e-01,-1.98196e-01,
-1.99955e-01,1.75668e-01,-1.30121e-01,-7.06504e-01,1.40698e-01,-5.11848e-01,-7.32661e-01,-2.10920e-01,-2.66462e-01,-6.05605e-02,-1.19276e+00,-4.06844e-01,6.09354e-01,3.94826e-01,-4.53352e-02,-6.35400e-02,-2.19329e-01,6.43112e-01,-1.98525e-01,6.64814e-02,-4.43744e-02,1.73094e-01,2.73277e-01,-7.39845e-02,3.53656e-01,1.30724e-01,8.06646e-02,1.30826e-01,5.35241e-01,1.08945e+00,
2.39060e-01,-5.16263e-01,2.43839e-01,8.28883e-02,-3.10253e-01,-1.19031e-01,-7.69391e-01,-4.43978e-02,-5.68384e-02,-1.53874e-01,-1.23808e-01,5.57656e-01,4.55180e-02,-1.38783e-01,-5.71598e-01,-2.21369e-01,6.57670e-02,-3.60976e-01,-6.08471e-02,-7.67062e-02,-3.65941e-01,-4.96525e-01,-8.11166e-01,1.22785e+00,3.96402e-01,-2.30962e-01,-8.59436e-01,4.25957e-01,5.19346e-02,1.00467e+00,
-2.01371e-01,-2.71158e-01,-7.89727e-02,-3.09917e-03,-2.81454e-01,-2.42165e-01,-2.53262e-01,-2.33744e-01,5.25476e-02,6.04703e-02,2.14097e-02,-1.32168e-01,-1.48545e-01,-1.27815e-01,3.14697e-01,-1.56677e-03,-2.08096e-01,2.14700e-02,-2.85209e-01,2.94249e-01,7.97372e-02,1.38902e-02,-1.16301e-01,-3.12181e-01,2.65825e-01,-2.27327e-01,-1.73686e-01,5.68618e-02,-5.73128e-02,1.67675e-01,
-1.26364e-01,-2.88098e-01,3.49779e-01,-3.29055e-01,-1.30025e-01,6.88127e-01,-2.31949e-01,6.18852e-01,1.68358e-01,1.97939e-01,7.35557e-01,4.38891e-01,-3.49619e-01,-1.68088e-02,7.43862e-01,-3.77856e-01,1.49017e-01,-1.45093e-01,-1.76274e-02,6.73386e-02,3.48976e-01,-4.50010e-01,2.80956e-01,-4.29090e-01,1.54484e-01,6.55280e-01,-3.83562e-01,-4.71250e-01,-3.58303e-01,9.07743e-02,
2.55169e-01,1.00061e-01,-4.68274e-01,1.21988e-01,4.43258e-01,-7.41091e-01,8.12191e-02,1.13621e-01,-1.52975e-01,-1.71588e-01,2.97706e-02,-4.64859e-01,6.92817e-01,-2.35565e-01,-7.74211e-03,-1.32589e-01,-4.56029e-01,4.78545e-01,1.72086e-01,9.36487e-02,-3.08656e-01,4.54001e-01,-6.77914e-01,6.90747e-01,4.27579e-01,-6.55086e-01,2.70855e-01,1.63078e-01,2.90447e-01,-1.27000e-01,
-2.46516e-01,1.31564e-01,1.94368e-01,-2.87994e-01,8.19949e-02,-1.13247e-01,-3.16025e-01,4.10327e-01,2.65262e-01,2.74542e-01,1.93401e-01,-3.19261e-02,-1.79106e-01,-9.55574e-02,6.05079e-01,2.37596e-01,-3.04677e-02,-6.06138e-01,-2.01275e-01,3.49879e-01,-3.40200e-01,-3.65816e-01,-9.48951e-02,1.14486e-01,1.75332e-01,-8.15252e-01,3.56027e-01,3.23953e-01,2.07977e-01,8.24958e-02,
-1.70563e-02,-3.59937e-02,3.39332e-01,3.30519e-01,5.96416e-01,-1.99159e-01,-2.92054e-02,-2.65538e-01,7.01911e-02,3.77950e-01,-1.67776e-01,-3.13565e-02,-4.20340e-01,3.02707e-01,2.29869e-01,3.54134e-01,1.67937e-01,5.92153e-01,-3.82983e-01,-1.55508e-01,5.02927e-02,-4.12940e-01,4.00495e-02,-3.48337e-01,-2.17338e-01,-5.82327e-01,-2.17236e-01,5.47130e-02,-7.38092e-01,-5.70654e-01,
3.09547e-02,
1.62443e-01,
-7.34137e-02,
1.26819e-01,
1.41480e-01,
-3.99235e-02,
-1.18709e-01,
4.64873e-02,
-1.42327e-02,
5.02222e-02,
-6.35182e-03,
6.37485e-02,
1.93094e-01,
-1.55187e-01,
2.77934e-01,
3.52866e-02,
2.67742e-01,
-2.74776e-01,
-2.15182e-01,
8.32130e-03,
1.08717e-01,
2.66122e-02,
8.39585e-02,
1.67573e-01,
-1.26464e-01,
-1.89693e-01,
2.17455e-02,
-1.02173e-02,
3.15399e-01,
2.62159e-01,
3.81998e-01,3.36441e-01,-3.02559e-01,-5.53182e-01,2.61905e-01,-2.48663e-01,6.56876e-01,-6.23170e-01,1.01013e-01,1.19667e-01,-4.73404e-01,2.17495e-01,5.36148e-02,6.69311e-02,-4.16595e-02,-2.85459e-01,3.39643e-01,2.19252e-03,-2.18834e-01,-4.92072e-01,-1.22066e-01,1.71847e-03,1.11319e+00,-6.66940e-02,-2.17781e-01,-1.51409e-01,3.96226e-01,7.16145e-01,1.09878e-01,4.71482e-01,
3.71548e-01,-3.28662e-01,1.25203e-01,-2.76203e-01,1.32683e+00,2.06092e-01,-3.35487e-01,1.75852e-01,-1.60477e-01,3.49876e-01,3.35572e-02,7.66346e-02,-8.54457e-02,-1.08127e+00,4.33704e-01,-2.03520e-01,-7.94609e-02,3.69535e-01,-9.36503e-02,-3.31492e-01,1.46472e-01,-6.09100e-01,-1.27352e+00,-1.14507e-01,-5.85978e-01,-4.93973e-04,2.49234e-01,-4.50032e-01,5.36710e-01,-5.05032e-01,
2.85817e-01,-1.25157e-01,-2.68878e-01,9.36864e-03,2.99619e-02,6.18830e-02,2.16753e-01,2.13939e-01,-4.75866e-02,-2.76558e-01,8.79776e-02,1.07449e-01,-3.83552e-03,3.09401e-02,-1.96556e-01,-2.35948e-01,-1.87527e-01,-3.14690e-01,-6.72642e-02,5.19024e-03,4.71384e-02,2.19341e-01,5.49404e-02,3.85659e-02,1.78638e-01,-2.10376e-01,-3.40578e-01,-1.47902e-01,-3.13181e-01,1.55251e-01,
-2.50728e-01,-3.04601e-01,-2.46484e-01,-8.81562e-03,-5.68211e-02,1.87525e-01,2.51343e-01,-3.81213e-01,-1.89340e-01,-3.51624e-01,4.15129e-02,-3.20576e-01,-2.94232e-01,8.96045e-02,-6.27326e-02,-4.28278e-02,1.19414e-01,2.34917e-01,-2.57394e-02,-2.19755e-02,1.68841e-01,1.22045e-01,2.23663e-01,-2.24340e-02,1.97978e-01,-1.28784e-01,1.92962e-01,5.74454e-02,-1.44730e-01,2.14484e-01,
1.63375e-01,-7.59139e-01,-3.43901e-01,-4.70192e-01,4.66055e-01,-7.19432e-02,-3.71531e-02,-2.57030e-01,2.22162e-02,-1.85007e-01,2.21845e-01,1.57851e-01,-2.97437e-01,4.56102e-01,-1.32549e+00,-8.54774e-02,9.39497e-02,-1.28872e-02,1.10880e-01,4.62962e-01,-1.47603e-01,1.79265e-01,-2.47950e-01,1.25621e-01,3.34827e-01,-1.18178e-01,-5.06402e-01,-6.64849e-01,3.36274e-01,3.88687e-01,
3.90591e-01,3.27552e-01,2.44950e-01,5.99572e-02,5.79446e-01,2.31264e-01,-7.34289e-01,-1.42347e-01,-2.02946e-01,1.12916e-01,3.24680e-01,2.48522e-01,-5.25940e-01,-1.78471e-01,2.51017e-01,-8.32373e-01,1.34181e-01,4.38491e-01,-5.77090e-01,-2.45372e-01,1.91533e-01,2.12843e-01,-5.11171e-01,5.86818e-01,-1.60163e+00,2.88474e-01,5.49453e-01,-6.28216e-02,4.18435e-01,1.26205e-04,
-5.05592e-02,-2.02513e-01,-5.16898e-02,-7.55026e-02,5.30168e-02,-1.14433e-01,-3.42863e-01,3.94125e-01,3.05731e-01,2.56314e-01,-8.70858e-01,-9.66662e-02,-3.43464e-01,2.28356e-01,-3.16933e-01,2.58034e-01,5.09428e-01,-1.43865e-01,8.59829e-02,-1.25139e-01,5.02414e-02,-2.08079e-02,-1.25697e+00,-4.92776e-02,-3.37994e-01,-8.02751e-02,2.96551e-01,-6.66004e-02,7.57499e-02,-4.36337e-01,
-2.48124e-01,-5.57971e-01,1.33780e-01,-2.19147e-01,5.81222e-01,1.21854e-01,-1.55163e+00,3.94253e-01,-1.39737e-03,2.17484e-01,8.16478e-01,-3.20814e-01,-2.43477e-01,5.34458e-01,2.69798e-01,-3.91068e-01,2.21807e-01,1.46044e-01,-1.56309e-01,-2.02900e-01,-2.68483e-01,-8.79028e-02,5.75944e-01,-3.41138e-01,3.65898e-01,-3.82712e-02,2.92737e-01,-4.46746e-02,5.27860e-01,-4.65767e-01,
3.55183e-02,-4.77378e-01,-2.89714e-01,1.12166e-01,1.28263e-01,8.64851e-02,1.61236e-01,4.86707e-01,1.15599e-01,2.55874e-01,5.35247e-01,-1.08159e-02,3.43746e-02,5.26974e-02,-1.72619e-01,-1.51364e-01,-8.92474e-02,-1.21323e-01,-2.72622e-03,2.09293e-01,-6.08915e-02,-3.10477e-01,-5.72845e-01,-2.91098e-01,1.06614e+00,-2.22344e-01,-3.98198e-01,-7.03574e-01,-2.27791e-01,-3.74691e-01,
2.71249e-01,-1.43810e-01,-4.52760e-01,-3.93783e-01,-3.02801e-01,2.75747e-01,2.26202e-02,-3.08546e-01,8.57697e-02,7.54010e-02,-7.32551e-01,-3.20062e-02,1.10647e-01,-2.70968e-01,-6.61847e-01,1.14324e-01,-1.21073e-02,-3.42607e-02,3.57523e-04,2.15062e-02,3.12368e-01,-6.69079e-02,-3.47703e-01,-2.79910e-01,5.22567e-02,-2.04182e-01,-3.30403e-02,-6.02655e-01,-2.39373e-01,-2.70430e-01,
3.56225e-01,-7.72869e-01,1.09132e-01,2.39262e-01,1.26490e+00,3.75800e-02,-8.64909e-01,2.57846e-01,-4.53747e-01,2.97012e-01,1.09699e+00,-3.82412e-01,3.85015e-01,-2.04920e-01,4.09600e-01,-2.73469e-01,4.57848e-02,-2.43927e-01,-7.73180e-02,-6.00682e-01,2.59314e-01,1.67809e-02,-1.33498e+00,1.97007e-01,-1.07215e+00,-2.10608e-01,2.70805e-01,-8.56627e-02,4.67330e-01,-2.71240e-01,
-3.51005e-01,-2.33652e-01,-7.83811e-03,3.56462e-01,-5.49293e-01,2.93062e-01,-1.54470e-01,7.89145e-01,2.11431e-01,3.93724e-02,-1.37864e+00,4.71006e-01,1.28027e-01,5.09797e-01,-7.64792e-01,2.71317e-01,-6.90388e-01,-6.73033e-01,-1.28107e-01,3.57301e-01,1.87576e-01,3.66029e-01,5.46715e-01,1.90804e-02,2.03431e-01,2.07505e-01,-2.92116e-01,7.61366e-02,-9.40629e-02,2.26986e-01,
1.13431e-01,4.35874e-01,5.98632e-02,2.44594e-01,6.16268e-01,-1.46239e-01,1.41999e-01,1.11631e-01,-1.79297e-01,2.42433e-01,8.28139e-01,-2.56743e-01,-2.13058e-01,6.11465e-01,7.00490e-02,-3.05837e-02,-5.20843e-01,3.61119e-01,-4.01803e-01,-4.96472e-03,1.07622e-01,1.03232e-02,7.62285e-01,-6.19378e-02,-1.09236e+00,8.83082e-02,2.26539e-02,-4.90028e-03,8.09058e-02,6.98578e-02,
3.61799e-01,-9.92288e-02,4.67153e-01,-6.14083e-01,3.82753e-01,3.06995e-02,8.94829e-01,-4.34630e-01,-7.72498e-02,3.43458e-03,-1.27443e+00,-2.64736e-01,-1.97573e-01,-5.35309e-01,-9.02609e-02,-9.22871e-03,-4.00063e-02,-1.74087e-01,5.80086e-01,3.34339e-01,2.10881e-01,1.24808e-01,5.32231e-01,-3.41274e-02,-3.13419e-01,8.09699e-03,-3.23132e-01,-3.52524e-01,1.00604e-01,3.71286e-02,
-1.06276e-01,2.92132e-01,1.31089e-01,-4.27883e-02,-3.99838e-01,2.27611e-01,-1.50515e-01,-9.48169e-02,-1.47433e-01,3.14940e-01,1.27400e+00,-4.99168e-01,3.11680e-01,-6.11659e-01,-5.25855e-01,-9.16745e-03,3.84910e-01,-9.23745e-02,-1.11998e-01,2.81464e-01,2.08657e-01,4.87281e-01,1.00358e+00,8.43133e-02,5.74332e-01,2.09701e-01,1.21243e-01,-2.31932e-02,-2.79068e-01,-1.63411e-01,
4.96345e-01,5.13473e-01,-1.12706e-01,-1.94185e-01,-6.05865e-01,-2.67172e-01,8.17789e-02,-9.05259e-01,-1.78129e-01,2.66112e-01,4.11570e-01,1.55371e-01,1.25329e-01,-6.69996e-01,4.49953e-01,2.62183e-01,5.89912e-02,-4.39683e-02,-1.12081e-01,-4.75048e-01,1.12423e-01,2.32225e-01,8.31486e-01,-1.89521e-02,-1.19457e+00,1.52316e-01,6.80889e-01,7.71826e-01,2.12978e-01,2.47490e-02,
-8.49367e-02,-2.14259e-01,-1.70569e-01,5.05918e-02,7.11481e-02,-9.24489e-03,3.10428e-01,6.13996e-02,-1.50774e-01,1.45159e-02,2.81824e-01,-9.16421e-02,-1.23893e-01,-3.50307e-02,-2.96342e-01,2.13570e-02,-1.17694e-01,1.46272e-01,-1.39501e-01,-3.16104e-01,-9.74136e-02,1.63074e-02,2.60072e-01,-2.46133e-01,2.97721e-01,-1.44789e-01,-9.47655e-02,2.63585e-01,2.16298e-01,-1.19756e-01,
1.48253e-01,1.38429e-01,1.24912e-01,-1.47246e-01,-1.42317e-02,-5.86113e-02,2.79185e-01,-2.56098e-02,-2.85749e-01,-2.10488e-01,2.78402e-01,5.90909e-02,-1.29329e-02,-1.73290e-01,-3.68543e-02,-2.14932e-01,-9.67487e-02,-1.02890e-01,-2.66950e-01,1.12946e-01,-1.27737e-01,9.21282e-02,-2.77685e-01,1.77536e-01,2.73965e-01,-2.25090e-01,7.34522e-02,2.78784e-01,-1.51825e-01,-3.13504e-01,
-1.73629e-01,5.39259e-03,4.08345e-03,-1.61258e-01,-1.27692e-01,6.34574e-02,-2.75979e-02,-2.38794e-01,-2.20526e-02,2.71940e-02,-6.09138e-02,-3.14313e-02,-8.17519e-03,1.30574e-01,2.24701e-01,1.72849e-01,-9.26090e-03,-2.71068e-01,-1.16968e-01,-1.26767e-01,-1.65954e-01,8.01629e-02,1.80381e-01,4.82569e-02,-1.36048e-01,-4.69668e-02,2.11167e-01,-9.50591e-02,2.36791e-01,-2.73657e-01,
5.35856e-02,-1.57091e-02,-2.02141e-01,3.29927e-02,2.59298e-02,-1.51011e-02,-7.88031e-01,3.92095e-01,-2.28020e-01,7.08510e-02,5.27495e-01,3.94013e-01,-5.46752e-01,2.90097e-01,2.19682e-02,-8.52281e-02,-6.52532e-02,4.24870e-01,-1.96136e-01,-1.03269e-01,-1.03471e-01,4.44741e-01,-7.75934e-01,7.09697e-02,-1.45791e+00,-2.17190e-01,-1.79039e-01,-1.07403e-01,2.71832e-01,1.78743e-01,
3.56774e-02,2.91790e-02,-5.75319e-02,-1.32284e-01,-1.02867e+00,-1.79513e-01,3.28580e-01,-7.19818e-01,-4.94639e-01,-6.27525e-02,-8.25783e-01,3.65215e-01,-2.56236e-01,1.56098e-01,9.86714e-02,1.69204e-01,3.38446e-01,4.09966e-01,2.64091e-01,1.29706e-01,1.11508e-01,3.24492e-01,-5.34268e-01,-7.88862e-02,-1.27081e+00,1.57320e-01,2.56583e-01,4.70462e-01,8.55854e-02,-4.04191e-02,
4.18533e-01,5.03130e-01,5.16815e-02,-5.04828e-01,-1.84187e+00,2.23709e-01,1.04846e+00,-7.24708e-01,-2.60984e-01,1.08862e-01,1.73747e+00,-4.17970e-01,-1.70922e-01,-5.25077e-01,9.28552e-02,-1.38379e-01,2.36638e-01,3.53857e-01,-3.47425e-01,-2.28653e-01,1.13765e-01,-3.24723e-02,3.08386e-01,3.97892e-01,-1.70130e+00,-2.96760e-01,4.30363e-01,8.00508e-01,1.52588e-01,8.49155e-02,
1.91254e-01,-2.67515e-01,-1.08011e-01,-2.25225e-01,2.21900e-01,3.14873e-01,1.96322e-01,-3.07001e-01,1.96347e-01,2.84846e-01,2.23084e-01,-2.39478e-01,2.95234e-02,-1.68712e-01,-2.78579e-01,-1.65552e-02,-2.86237e-01,1.75969e-01,2.30259e-01,-2.97434e-01,1.18655e-01,-1.12963e-01,5.41158e-02,-1.88296e-01,-8.23006e-02,-8.38629e-02,-1.13758e-01,-3.07757e-01,1.17967e-01,-3.07703e-01,
1.45303e-01,-3.43453e-02,2.04694e-01,-5.59350e-01,-3.38593e-01,1.93463e-01,7.41511e-01,-1.23653e+00,-4.21269e-01,1.35834e-01,4.40508e-01,1.20019e-01,3.18151e-01,-1.05881e-01,-7.16906e-02,1.88159e-01,-5.72328e-02,-2.25407e-01,-5.78565e-01,-2.73623e-01,5.09502e-01,-1.79401e-01,-3.81057e-02,-5.59701e-01,-1.52106e+00,8.97792e-03,5.34569e-01,-8.17172e-03,-2.26589e-01,2.13085e-01,
-6.01282e-01,-1.96534e-01,-9.76692e-02,3.31270e-01,-8.70036e-01,-1.09759e-01,2.09207e-01,4.14431e-01,1.51038e-01,3.48528e-01,1.02451e+00,3.85561e-01,1.76303e-01,-1.77419e-01,2.98638e-01,1.84194e-01,-5.79366e-02,-7.07740e-02,-1.28430e-01,1.76612e-01,-2.69361e-01,2.27112e-01,2.34507e+00,-1.08687e-01,2.30273e-01,-2.60269e-01,-1.57800e-01,-3.30765e-01,-1.91275e-01,-4.10867e-01,
-4.19361e-01,-1.58962e-01,7.80814e-01,-1.48102e-01,-2.42122e-01,9.81956e-02,-1.81004e-01,-7.99424e-02,-9.67669e-03,3.42333e-01,-5.58777e-01,1.79741e-01,8.42807e-03,3.53588e-02,1.86172e-02,1.65358e-01,-4.23342e-02,3.22504e-02,1.22472e-01,1.48716e-02,2.49249e-01,8.23010e-01,7.28795e-02,2.58358e-01,1.29356e+00,-8.66354e-02,-6.04698e-02,-2.10699e-02,-4.30485e-01,5.43151e-01,
-8.44682e-02,7.07188e-02,2.03034e-01,1.88514e-01,-9.61964e-01,-2.04275e-01,6.00533e-01,-2.38066e-01,4.35562e-01,-4.65296e-01,7.59866e-01,9.20721e-02,1.35876e-01,3.94150e-01,2.15004e-01,1.13098e-01,5.31964e-02,-1.19881e-01,4.92814e-01,7.31733e-02,-6.62915e-03,6.62296e-01,5.56945e-01,-5.46637e-01,1.20220e-02,-1.63814e-01,-2.35119e-01,-4.66291e-01,5.96442e-02,3.21775e-01,
-1.32138e+00,-2.48383e-02,-3.20901e-01,-5.25465e-01,-1.37767e+00,-1.63590e-01,1.01671e+00,-8.90572e-01,3.77084e-01,3.75435e-01,1.72359e+00,-5.23201e-03,2.92696e-01,-8.82811e-01,-4.18327e-02,1.38761e-01,2.78328e-02,-2.02667e-01,-4.83497e-01,4.11745e-01,-7.40715e-01,1.29354e+00,3.55420e-01,3.52701e-01,-7.31146e-01,2.73248e-01,-1.20738e-01,8.61544e-02,3.58629e-01,1.39328e-01,
-2.36412e-01,1.01054e-02,-1.68786e-01,2.04530e-02,-2.14385e-01,1.75058e-01,-1.07520e-01,-1.89481e-01,-1.24252e-01,-2.11489e-01,-4.97879e-02,-1.72537e-01,-2.48888e-01,2.36219e-01,6.34507e-02,2.18806e-01,1.26913e-01,-7.22605e-02,-2.76078e-01,2.38904e-01,-2.69471e-01,2.37523e-02,1.69355e-01,-3.13724e-01,-5.14764e-03,-1.12801e-01,-1.73678e-01,1.68773e-01,-1.95545e-01,-2.10848e-02,
1.76571e-01,-2.37045e-04,1.26179e-01,3.30242e-01,-1.07203e-01,-7.12313e-02,3.82319e-02,-1.13773e-01,-3.35153e-01,-7.64867e-01,5.14308e-01,5.73260e-02,8.47423e-02,-1.03012e-01,-2.15126e-01,3.21270e-01,-3.13081e-01,-1.31733e-01,-3.44875e-01,-2.98088e-01,-2.14709e-01,-1.89075e-01,-1.13261e-01,-5.01318e-02,-1.56558e+00,-2.45186e-01,1.87246e-01,9.93597e-02,-3.04484e-01,-6.37390e-02,
2.88513e-02,
6.88295e-02,
-2.39974e-01,
-1.48888e-01,
-2.57280e-01,
-1.65367e-01,
3.10884e-01,
2.01473e-01,
4.57241e-01,
-1.42901e-01,
-1.44851e-02,
2.54132e-02,
1.13145e-01,
1.69792e-01,
1.24560e-01,
-2.45372e-01,
-2.03925e-01,
-2.16049e-01,
-2.70652e-01,
2.02723e-01,
-6.00033e-02,
1.23121e-01,
-3.01205e-01,
-8.05908e-02,
1.02113e-01,
-6.22416e-02,
-5.39299e-02,
-9.03735e-02,
-5.20065e-02,
5.04549e-02,
7.69674e-02,-3.24721e-01,7.92725e-02,3.26857e-01,1.90860e-01,2.15656e-01,5.66770e-02,-3.63564e-02,-1.13828e-01,-1.20820e-02,1.04951e-01,3.88389e-03,-1.40403e-02,1.38990e-01,-4.65695e-02,3.49067e-02,1.12727e-01,-5.49514e-02,2.02792e-01,-2.78476e-01,1.05232e-01,-1.99154e-01,2.75127e-01,-1.08396e-01,1.08036e-01,-2.40752e-01,-6.24470e-02,-1.17733e-01,-2.99495e-01,-1.93980e-01,
2.45686e-01,-1.15226e-01,2.48783e-02,-1.39969e-01,2.12722e-01,-4.47000e-01,2.28227e-01,-4.62585e-01,-1.11712e-01,2.02613e-01,6.74908e-02,-1.62631e-01,2.60449e-01,-1.90019e-01,-1.58633e-01,5.17171e-01,1.47506e-01,-5.99961e-02,2.16694e-01,4.37973e-01,-2.20449e-01,1.81453e-01,2.78790e-01,-1.28670e+00,-3.94833e-01,2.82904e-02,-3.34345e-01,7.27613e-01,-2.41992e-01,-3.35813e-01,
2.26012e-01,1.55541e-02,1.88897e-01,2.42660e-01,-1.13354e-01,-1.34660e-01,1.22365e-01,-1.47412e-01,-1.23852e-01,1.24627e-01,-1.53634e-02,-4.14647e-01,-1.26818e-02,5.98534e-02,-2.41718e-02,1.35279e-01,3.07658e-01,4.64349e-02,-1.97490e-01,5.72967e-05,3.50714e-02,-5.89763e-03,1.32859e-01,9.03169e-02,1.00750e-01,-1.37077e-01,1.30330e-01,7.71654e-02,-1.79442e-01,-5.93414e-02,
2.35934e-01,5.18932e-01,8.99859e-02,2.00732e-01,1.39062e-01,-7.86125e-02,-7.85622e-03,5.54939e-04,4.98470e-02,-1.28397e-01,-1.43616e-01,-2.77903e-01,-5.90756e-02,3.81749e-01,9.23395e-02,1.69171e-01,1.40028e-01,1.88260e-02,-2.97666e-01,2.39000e-01,2.25143e-01,1.40379e-01,1.41632e-01,1.01398e-01,4.32403e-01,-9.73296e-02,3.98597e-01,8.81199e-02,5.46628e-02,-7.15706e-02,
1.74894e-01,8.31476e-02,2.68419e-01,1.43088e-01,2.16558e-01,-1.49448e-01,1.43205e-01,-1.75043e-01,-5.65091e-02,-2.54853e-01,1.62526e-01,2.40825e-02,1.21686e-01,4.24838e-02,-3.11073e-01,-2.64028e-01,-1.76093e-01,2.91074e-01,-1.88661e-01,-9.45387e-02,1.13470e-01,-2.32234e-01,3.62908e-02,8.66210e-02,-3.34582e-01,1.69349e-01,3.00051e-03,2.08184e-01,3.40568e-02,-2.67468e-01,
2.16543e-03,2.30005e-01,1.36800e-01,-1.77501e-01,-1.83202e-01,-2.52690e-01,3.00903e-01,-3.15227e-01,-1.44531e-01,-1.73914e-01,4.90086e-02,-2.48482e-01,-2.03788e-01,-1.73996e-01,-2.19377e-01,3.18960e-01,1.26638e-02,2.45386e-01,3.15939e-02,-2.07797e-01,-1.15309e-02,-1.59479e-01,-2.61482e-01,1.92410e-01,2.70036e-01,-7.40710e-02,-4.59450e-01,1.70556e-01,-2.06401e-02,-1.33514e-01,
5.23141e-02,8.80482e-02,-7.51794e-02,-5.80170e-02,-2.25394e-01,1.37008e-02,-4.48058e-02,9.33364e-02,-1.06288e-01,-3.10359e-01,-1.09432e-01,5.44515e-02,-9.68035e-02,6.28783e-02,1.32010e-01,-2.73497e-01,-2.42511e-01,1.37956e-01,9.93906e-02,1.00379e-01,-2.42616e-02,2.03827e-01,8.78892e-02,-1.05027e-01,-1.24564e-01,1.69515e-01,1.89744e-02,-1.01455e-02,-1.36856e-02,-1.55118e-02,
2.82669e-01,2.25033e-01,-9.80849e-02,-2.65212e-01,6.94272e-01,1.89149e-02,8.84305e-02,-6.10013e-02,-4.11374e-01,-6.48076e-03,-2.12617e-01,-1.56458e-01,-1.83639e-01,1.57157e-01,2.63347e-02,-9.65991e-02,1.34934e-01,-2.26110e-01,-2.38610e-01,3.42549e-02,-1.31121e-02,2.39542e-01,1.98586e-02,-1.98220e-01,1.45454e-01,2.10643e-01,1.43968e-01,-7.80253e-02,-1.29984e-01,-2.47082e-01,
-1.71990e-01,-2.77560e-01,-1.90110e-01,2.32562e-01,1.17023e-01,-8.60093e-02,-8.36821e-02,3.67588e-01,-2.45483e-01,3.20790e-01,3.61027e-01,-1.63380e-01,-2.40086e-01,3.31013e-01,1.58762e-01,-2.95443e-01,1.28843e-01,1.35393e-02,-2.17456e-01,-6.72164e-01,-2.75110e-01,-4.44772e-01,-3.10595e-01,2.96850e-01,-3.08158e-02,-2.56598e-01,8.95553e-02,-5.39160e-01,7.89047e-02,1.19546e-01,
1.02167e-01,5.04187e-01,-1.27245e-01,-1.76439e-01,1.11918e-01,-9.00751e-01,1.20338e-01,-1.19893e-01,-5.48239e-01,-5.05113e-01,2.81456e-01,-6.02397e-01,-4.85693e-01,-3.67612e-01,-5.09943e-01,-6.62627e-02,1.85940e-01,1.98356e-02,2.73805e-01,-2.75247e-01,-3.98341e-03,-4.21314e-01,-3.39308e-02,5.36218e-01,3.96433e-01,8.84790e-02,9.67704e-03,-4.23644e-02,4.60226e-02,3.28071e-01,
4.78603e-02,2.52047e-02,2.69618e-01,2.72605e-01,2.93263e-01,3.10437e-01,-4.64747e-02,4.12609e-02,1.69037e-02,-7.40720e-02,-3.03836e-01,-4.10404e-01,3.06964e-01,1.65695e-01,-1.80122e-01,5.80136e-02,-1.71122e-01,-1.47809e-01,2.07501e-01,-5.44289e-01,-1.49247e-01,-2.61891e-01,2.85536e-01,2.02076e-01,-1.51116e-01,-2.95552e-01,3.00459e-01,5.46328e-01,2.86820e-01,-5.00382e-02,
-7.90511e-02,-2.77668e-01,2.11608e-01,-1.91115e-01,-1.03582e-01,1.08013e-01,1.54143e-01,-2.64412e-01,3.41451e-02,9.06122e-02,6.68160e-01,4.17400e-01,-2.39559e-01,-1.07794e-01,-3.15460e-01,1.03751e-01,2.58176e-01,-5.06287e-02,7.51644e-02,-1.75963e-01,2.16824e-02,-7.00375e-02,-1.27968e-01,-1.11910e-02,-1.17498e-01,3.17183e-02,2.80311e-02,1.54521e-02,-3.01856e-03,3.05548e-01,
1.93766e-01,2.33500e-02,1.44901e-01,-2.82775e-01,-3.20070e-01,-2.97524e-01,-2.87320e-01,6.32248e-02,1.30243e-01,2.69694e-01,-1.19565e-01,-3.03214e-01,-6.59400e-02,1.15244e-02,1.85330e-01,-3.52823e-01,-1.37264e-01,1.62257e-01,7.34685e-02,8.04001e-02,2.05403e-01,1.10622e-01,-1.97450e-01,1.11755e-01,1.48545e-01,-5.10880e-01,-3.35042e-01,3.67651e-02,-7.24279e-02,-1.73442e-01,
1.15141e-01,1.34254e-01,2.54768e-01,-8.59638e-02,1.01002e-01,-6.55473e-01,-4.43372e-02,-3.60051e-02,2.02865e-01,-2.22539e-01,-1.77325e-01,-5.43049e-01,-4.67353e-02,-2.66058e-01,4.93827e-01,-4.77865e-01,6.57700e-02,3.01891e-02,-2.47754e-01,-1.18079e-01,2.77014e-01,3.46655e-01,-3.04031e-02,9.09119e-02,2.33041e-01,-8.76625e-01,-6.58206e-01,3.76371e-02,8.67929e-02,-5.19272e-01,
3.79665e-02,-1.22788e-01,-9.98671e-02,-1.87020e-01,3.33824e-01,4.47012e-01,2.31461e-01,-8.23510e-02,4.46416e-02,-2.95112e-02,-3.00334e-02,-4.74580e-02,-2.78857e-01,-1.73841e-01,9.34465e-02,1.88102e-01,1.66138e-01,-1.05801e-01,-3.06606e-02,1.50522e-02,-2.11704e-01,1.56940e-01,-1.48740e-01,3.23779e-01,3.62163e-01,6.10845e-03,9.98546e-02,2.19637e-01,-2.25826e-01,8.98928e-02,
1.91376e-01,-3.04110e-01,-1.18973e-01,4.24958e-02,-1.36801e-01,-1.11746e+00,-1.42932e-01,1.27198e-02,-2.94851e-02,3.52900e-01,-1.01041e-01,-5.92963e-01,3.63290e-01,1.12361e-01,-6.80948e-02,4.73903e-01,-1.48657e-01,5.24029e-02,2.62470e-01,8.09147e-02,2.52463e-01,4.21071e-02,1.17083e-01,-4.57421e-01,-2.80183e-01,5.82515e-02,-3.70823e-01,4.16599e-01,1.29204e-01,5.11599e-02,
3.85276e-02,2.12103e-01,-8.64446e-02,1.49400e-01,-2.38308e-01,-2.32482e-01,1.57646e-01,-4.51876e-02,2.22069e-01,1.35220e-01,-1.63659e-01,-1.35293e-01,-3.32449e-01,-1.67463e-01,-3.33995e-01,-2.30426e-01,2.43335e-02,-1.92701e-01,2.22406e-02,-9.53164e-02,-4.48405e-02,1.31266e-01,2.84914e-01,-1.33788e-01,-2.44671e-01,-1.56074e-01,-1.14503e-01,-2.24548e-01,8.13173e-02,-1.00074e-02,
-4.77587e-01,1.62959e-01,-6.49837e-02,1.00081e-01,-2.22350e-01,-3.89648e-01,1.26923e-01,-1.35960e-01,2.03674e-01,-2.20157e-02,-4.02734e-01,8.49437e-02,5.32122e-01,-5.13741e-02,3.01808e-01,2.31168e-01,3.14518e-01,1.25290e-01,2.28345e-01,3.92826e-01,-9.60894e-02,-1.47493e-01,-1.06020e-01,3.05762e-01,-2.14762e-02,6.74784e-02,-2.46199e-01,3.36258e-01,2.41368e-01,-4.72870e-02,
-1.83061e-01,3.65204e-01,-2.83404e-01,9.95032e-02,1.84995e-01,1.09834e-01,2.29255e-01,-2.01948e-01,4.23073e-01,-4.05281e-01,6.28977e-02,-5.64699e-01,1.98294e-02,3.11272e-01,-3.99500e-01,-2.33457e-02,2.16634e-01,2.37589e-01,8.98909e-02,1.75125e-03,2.06947e-01,1.90566e-01,-2.71468e-01,-1.02450e+00,-5.68173e-01,-2.92733e-01,1.12507e-01,-7.24957e-01,2.53573e-01,-9.09351e-02,
-1.59756e-01,-3.94715e-02,1.61758e-03,1.94090e-01,-2.04711e-01,5.13698e-01,-1.81008e-01,5.24344e-01,-2.52753e-01,1.18111e-01,-2.11217e-02,1.82286e-01,-2.02036e-01,4.93622e-01,5.29883e-01,-7.91838e-01,-2.55111e-01,1.42282e-01,6.88573e-02,3.39741e-01,-2.16746e-01,-6.25725e-01,-5.09960e-02,1.38672e-01,4.17075e-02,1.86875e-01,2.74234e-02,-5.62191e-01,8.24008e-02,4.71245e-02,
1.44710e-02,-1.92989e-01,2.40421e-01,-2.07415e-01,-1.82241e-01,5.99087e-01,4.10009e-01,-9.49208e-02,-4.19805e-02,-3.49346e-02,2.78642e-01,1.66329e-01,7.43536e-02,-2.07368e-02,1.66573e-01,9.21348e-03,-2.02826e-01,1.75468e-01,-1.51599e-01,-3.15287e-01,1.86678e-01,-2.28114e-01,-1.73942e-01,-1.11251e-01,-9.04582e-02,-3.56109e-03,1.16767e-01,-7.87822e-02,-2.30231e-01,4.05517e-02,
2.69182e-01,2.36439e-01,1.53409e-01,-2.86210e-02,7.45121e-02,-2.45093e-01,5.32455e-02,-9.56680e-02,-1.04873e-01,1.13196e-01,-1.31195e-01,-2.05362e-01,-2.18348e-02,1.20706e-01,-3.05019e-01,7.86198e-02,1.63756e-01,-2.84329e-01,-1.59437e-02,1.06700e-01,9.29903e-02,-7.22287e-02,-7.96536e-03,8.46674e-02,4.22336e-02,-1.54003e-01,-1.11320e-01,7.12093e-02,-6.16616e-02,1.98755e-01,
-1.62252e-01,-2.18685e-01,2.93728e-01,-1.89873e-01,8.31443e-02,2.48542e-01,3.82506e-02,1.74458e-01,1.55455e-01,-1.17821e-01,6.62563e-02,1.17447e-01,-3.02906e-01,-8.00245e-02,-1.38253e-01,7.22484e-02,-2.16231e-01,-2.56682e-02,1.13553e-02,-3.84826e-01,2.28686e-01,1.74926e-01,1.32749e-01,9.91836e-02,-4.18717e-01,1.59745e-01,-2.80869e-01,1.45852e-01,-1.95339e-01,-9.83993e-02,
3.03871e-01,-5.69022e-01,9.81626e-02,9.46256e-04,-2.27137e-01,3.37179e-01,3.80028e-01,-5.15405e-01,6.27033e-01,1.59417e-01,-3.03100e-01,3.88893e-02,-2.88432e-01,-3.78830e-01,1.54851e-01,9.64035e-02,1.14579e-02,-3.39226e-02,2.19628e-01,-7.24880e-02,1.74083e-01,-1.41531e-01,2.73086e-02,1.42246e-01,-1.59372e-01,7.58575e-02,-9.72473e-02,3.14725e-01,-6.87326e-02,-3.20644e-01,
-3.00760e-01,-4.72420e-02,2.83314e-01,1.97414e-01,-3.10535e-01,-2.07302e-01,4.79801e-02,7.61928e-02,4.01335e-02,-1.06248e-01,4.73525e-01,4.24123e-01,6.67697e-02,2.88030e-02,-8.41979e-02,-1.93465e-01,1.46632e-01,-4.02903e-02,-1.80944e-01,-9.92700e-02,-4.67152e-02,-6.52238e-01,-3.44700e-02,2.53350e-02,-2.73004e-01,1.04162e-01,-2.15287e-01,-4.00974e-01,2.78437e-01,7.14165e-02,
-5.37902e-01,-9.58092e-02,-2.09768e-01,-2.95584e-01,1.17327e-01,2.50471e-01,1.64966e-01,8.80818e-03,1.47522e-01,2.76545e-01,4.32887e-01,-1.74175e-01,-1.16773e-01,7.25329e-02,1.60480e-01,5.10414e-01,-1.32378e-01,1.07438e-01,2.13107e-01,-1.56725e-02,2.09009e-01,-1.08340e-01,1.47245e-01,-1.62506e-01,2.34081e-01,-3.01644e-01,1.41073e-01,-1.61196e-01,1.38111e-01,4.78291e-03,
2.49500e-02,-1.10083e-01,2.44537e-01,-2.31249e-01,-2.03602e-01,1.11143e-01,-6.59272e-02,1.15952e-01,-2.16587e-03,1.60632e-01,5.79221e-01,-2.96009e-01,-3.12659e-01,-6.71273e-01,-5.91494e-01,4.55188e-02,-9.27869e-02,2.45226e-01,1.92736e-01,-1.12429e-01,3.35589e-01,-1.10708e-01,2.12120e-01,1.46586e-01,2.81749e-01,-2.65734e-01,-1.14929e-01,-7.56281e-03,-7.08953e-02,-1.96318e-01,
2.00291e-01,-5.05158e-02,2.38885e-01,-2.66050e-02,-2.33638e-01,2.03283e-01,1.34049e-01,-1.98203e-01,1.68423e-01,1.15709e-01,-2.56988e-02,-5.98682e-02,3.17633e-02,-3.74997e-01,3.10939e-02,1.18882e-01,7.08888e-03,-3.05208e-01,1.66296e-01,-3.23939e-02,-2.42259e-01,-2.49280e-01,-8.18225e-02,2.51720e-01,2.50170e-01,8.51862e-02,4.76388e-02,-3.01567e-03,1.71363e-01,-1.16376e-02,
-4.42420e-01,9.03421e-02,-1.52317e-01,1.91286e-02,-6.36254e-03,2.94232e-01,1.14478e-02,3.56759e-01,1.73269e-01,7.88477e-03,3.89400e-01,4.44136e-01,1.89418e-01,8.34516e-02,-6.05933e-02,-3.05735e-01,8.83862e-03,-2.53471e-02,-2.48891e-01,-4.39783e-02,-1.73830e-01,-3.97998e-01,-3.08800e-01,5.37879e-01,1.85270e-01,1.84404e-01,-1.07401e-01,-1.71498e-01,3.15625e-01,1.39334e-01,
-1.34308e-01,-2.29257e-01,-2.00793e-01,9.95723e-02,-1.81598e-01,9.34203e-02,2.10223e-01,-1.77123e-01,-2.74271e-01,2.60586e-02,-3.32125e-02,1.04630e-01,2.09720e-01,-1.14237e-01,-2.16598e-01,-1.28957e-02,-2.24836e-01,-1.25720e-01,3.27860e-02,-1.77996e-01,-9.44218e-02,-4.05545e-02,1.07921e-01,-2.79424e-01,-5.80826e-02,-2.95157e-01,-2.53559e-01,2.71289e-01,-1.33055e-02,-1.65452e-01,
2.16367e-01,
-2.03487e-01,
8.82653e-02,
-1.33953e-01,
-3.50858e-01,
1.65235e-01,
5.11391e-02,
-2.07021e-02,
2.92658e-01,
2.53450e-01,
-1.81971e-01,
1.49689e-01,
2.04477e-01,
9.50220e-02,
-7.80849e-02,
1.57319e-01,
-1.41587e-01,
-5.46938e-02,
1.71685e-01,
-5.65625e-02,
-6.25010e-02,
-2.15323e-01,
-3.32726e-01,
-1.05453e-01,
1.88392e-01,
4.47098e-02,
1.22410e-01,
-7.82394e-03,
-1.30426e-02,
-3.00958e-01,
3.96692e-01,-5.71230e-02,-2.19820e-01,-3.59194e-01,8.02022e-02,6.31344e-01,1.10166e-01,8.45228e-02,-5.79103e-01,-4.62783e-01,3.25864e-01,-3.96541e-01,3.81764e-01,7.97026e-01,-1.20156e-01,-1.66331e-01,8.28129e-02,-2.46911e-01,-4.24921e-01,-7.62863e-01,-5.75768e-01,2.14549e-01,2.93032e-03,-5.91311e-01,-4.04653e-01,-6.06841e-03,1.16221e-01,-7.43966e-01,2.62182e-01,2.65930e-02,
5.02632e-02,2.40619e-02,-2.24318e-01,2.06079e-01,-7.39223e-02,-2.99471e-01,1.36242e-01,-1.39966e-01,3.83837e-02,2.09609e-01,-1.19980e-01,-5.05106e-02,5.75910e-02,-3.35000e-01,-2.46619e-01,-9.42877e-02,-2.97182e-01,8.07559e-02,2.71074e-01,-2.14733e-01,-1.83408e-01,1.83648e-01,8.80327e-03,1.35520e-01,-2.70191e-01,-1.44324e-01,1.57593e-01,-1.16956e-01,3.20426e-01,4.42715e-02,
1.52864e-02,1.54630e+00,-2.66245e-01,-4.09833e-01,3.03875e-01,-3.79849e-02,-5.86750e-02,-3.45639e-02,3.58969e-02,4.39727e-01,-4.28040e-01,2.40543e-01,1.21106e-01,3.54389e-01,2.21333e-02,-9.95860e-01,7.57144e-02,-5.01227e-02,5.04357e-01,5.27826e-01,2.50586e-01,-2.06985e-01,-1.91489e-01,4.63766e-01,-3.36648e-01,2.46435e-01,-2.34309e-01,1.61389e-01,5.85307e-01,-1.95704e-01,
-2.82795e-01,3.08555e-01,-1.00795e-01,1.27736e-01,2.57443e-01,-1.44479e-01,2.67101e-01,3.11273e-01,2.96982e-01,8.10951e-02,-2.13843e-02,-1.02428e-01,-2.81959e-01,-1.20188e-01,1.69247e-01,8.91916e-02,1.38910e-02,4.03054e-01,-1.00583e-01,-9.55761e-02,2.59173e-01,4.75944e-02,1.90010e-01,-2.52758e-01,6.68181e-01,-1.60137e-01,-2.50984e-01,1.35141e-01,-1.02487e-01,1.37985e-01,
7.46574e-02,2.19057e-01,2.42197e-01,-1.22803e-01,1.81200e-01,-2.71968e-01,4.61659e-01,8.42562e-02,3.94702e-01,5.35501e-02,1.55954e-01,-3.02983e-02,3.59246e-02,1.84565e-01,2.91762e-02,-1.89605e-01,-4.66679e-02,2.03300e-01,-6.49883e-02,-1.04322e-01,1.88068e-01,-3.07737e-01,2.28530e-02,1.49044e-01,-1.52541e-01,1.70342e-01,-1.23987e-02,2.86800e-02,2.57603e-01,-1.87248e-01,
1.04772e-02,1.53732e-01,2.07539e-01,8.04871e-02,1.44184e-01,-1.90790e-01,3.47937e-01,1.44009e-01,3.73050e-01,-6.44599e-02,-9.79135e-02,3.63652e-01,2.00003e-01,-8.33581e-02,-1.73666e-01,-2.53388e-01,8.03256e-02,3.30663e-01,1.32964e-02,3.61750e-02,3.07087e-01,-1.62661e-01,2.65188e-01,2.82872e-01,-8.19689e-02,-2.93328e-01,2.85976e-01,1.07052e-01,4.95581e-02,5.56816e-02,
-1.66561e-01,1.44809e-01,-9.87487e-02,4.76307e-02,-7.12794e-02,-9.20178e-02,3.02722e-01,3.30301e-01,4.91820e-01,-1.72268e-01,-5.59241e-02,9.67702e-02,-2.75052e-01,-1.64785e-01,-5.70332e-02,-1.63015e-01,5.44795e-02,4.75057e-01,-1.09628e-02,-3.10609e-02,2.06061e-01,2.45610e-01,8.34759e-02,5.02726e-02,7.84505e-02,-2.68837e-01,3.67063e-01,-2.42673e-02,-6.55801e-02,-4.31046e-02,
-7.44394e-03,1.36218e+00,-4.84188e-02,-1.97907e-01,-8.39040e-02,1.17750e-02,-7.82989e-02,-1.01594e-01,-7.52597e-04,1.62944e-01,-3.93054e-01,5.91735e-02,6.16969e-03,-2.86165e-01,-2.79222e-01,-1.02022e+00,2.23695e-01,-3.98130e-02,1.85978e-01,2.18648e-01,2.43410e-01,-9.20653e-02,2.60378e-01,2.77962e-01,-4.81231e-01,2.17085e-02,-6.11911e-03,1.01457e-01,3.02898e-01,-1.80785e-01,
1.77651e-01,-1.07809e-01,-1.44480e-01,1.48829e-01,1.24388e-01,9.31560e-02,3.11230e-01,-4.07944e-02,2.71489e-01,-2.29465e-01,-4.72789e-02,2.85745e-01,-2.18734e-01,-1.20159e-01,-1.41009e-01,-2.44442e-01,-2.90172e-01,-2.06570e-02,3.68440e-02,-3.74845e-02,6.09995e-02,-1.51537e-01,5.63711e-02,2.43653e-01,-4.09375e-01,-2.80527e-01,4.93612e-01,-1.14687e-01,-1.28953e-01,2.50133e-01,
-6.12806e-03,-6.40432e-02,-2.40893e-03,2.29623e-01,-2.27684e-01,-1.41912e-01,1.29033e-01,-1.12567e-01,1.64711e-01,1.47291e-01,-6.02185e-01,2.08633e-01,-5.05558e-01,7.93012e-01,1.81729e-01,4.20146e-02,2.99178e-01,8.64357e-02,4.90733e-02,1.90254e-01,2.94194e-01,-1.77969e-01,-1.87844e-01,1.72244e-01,-7.69641e-02,-1.66754e-01,-1.18974e-01,-2.75861e-02,5.17925e-02,8.82451e-02,
4.52639e-02,-1.05922e-01,2.38941e-01,-2.78851e-01,2.37387e-01,1.07557e-01,1.17561e-01,-3.04120e-01,8.94817e-02,2.88429e-01,-1.63022e-01,3.12592e-02,-2.66825e-01,-1.60541e-01,9.53954e-02,2.78054e-02,2.42651e-02,-7.52427e-02,-1.45390e-01,-2.59483e-01,-3.04528e-01,-3.32669e-02,-9.84901e-03,2.81117e-01,1.87926e-01,-2.73382e-01,2.65409e-01,-9.53097e-02,1.70166e-01,-1.26854e-01,
-2.63556e-01,6.54581e-02,-3.73694e-01,2.01695e-01,-1.07048e-01,1.19316e-02,-1.73692e-01,-7.55978e-02,1.46870e-01,-8.79942e-02,2.81792e-01,6.60773e-02,-8.06843e-02,2.41288e-01,1.05834e-01,-5.64003e-02,2.77059e-01,-2.46504e-01,1.52098e-01,8.52025e-02,2.20250e-01,3.15730e-02,2.58199e-01,5.85687e-02,-2.22744e-01,-1.79141e-01,1.32545e-01,-7.73847e-02,-2.82771e-01,-1.05054e-01,
-8.18737e-02,-2.61148e-02,-2.20806e-01,-4.22805e-02,-2.90080e-01,6.49705e-02,2.71534e-01,-9.59636e-02,-2.89297e-01,1.18617e-02,2.42229e-01,2.08228e-01,-2.39853e-01,3.10475e-01,-6.67681e-03,1.89956e-01,2.89223e-01,-1.06266e-01,-2.19426e-01,4.06916e-02,-5.20457e-02,8.35262e-02,1.46820e-01,1.65828e-01,-2.23318e-01,-1.76881e-01,2.98942e-01,9.87468e-02,5.65198e-02,3.12503e-02,
-2.20820e-01,1.15650e-01,-1.62988e-01,1.83020e-01,-4.65862e-02,-1.24731e-01,5.97867e-01,3.39740e-01,5.58486e-01,-1.20471e-01,4.16525e-02,1.94995e-01,-2.51658e-01,-6.81815e-01,-1.84134e-01,2.59761e-03,-1.82195e-01,3.30503e-01,-3.29678e-02,-5.73233e-02,1.79494e-01,7.29037e-02,2.83461e-01,2.86582e-01,1.23904e-01,-1.24902e-01,1.51769e-01,1.88240e-01,-4.29497e-03,3.08052e-01,
-1.93788e-01,-1.37395e-01,4.22916e-02,-6.79911e-02,4.88715e-02,1.49443e-02,-8.44980e-02,4.38090e-01,2.14509e-01,-3.46917e-01,-2.33107e-01,-1.59736e-01,-2.76828e-01,3.39053e-01,-2.01323e-01,-7.21450e-02,2.91577e-01,1.93090e-01,-9.06503e-02,2.36792e-01,-8.80573e-02,-1.56194e-01,-3.11855e-01,3.38538e-01,1.16779e-01,1.16003e-01,3.00306e-01,-1.27975e-01,-2.82441e-02,2.03344e-01,
3.66449e-02,7.26008e-01,-2.88956e-01,-4.00324e-01,-2.37564e-01,-9.04922e-02,1.06251e-01,-1.37345e-02,9.02138e-03,4.51462e-01,-1.30525e-01,3.14067e-01,1.60837e-01,4.25952e-01,3.56910e-01,-3.17088e-01,-7.71797e-02,-6.34821e-02,5.30788e-01,5.77369e-01,8.98696e-02,-1.78484e-01,2.49255e-01,3.46585e-01,-4.91373e-02,3.39263e-01,-3.12126e-01,1.00001e-01,5.60736e-01,3.71219e-02,
2.67532e-01,1.09201e-01,9.70260e-02,2.04850e-01,2.04705e-01,-1.46815e-01,-3.58399e-03,2.51601e-01,-2.44628e-01,-2.40813e-01,-3.15523e-01,-1.41563e-01,-4.31224e-02,-7.23719e-02,-6.49994e-02,2.20109e-02,-2.26019e-01,2.10187e-01,5.86329e-02,1.40023e-01,-3.21710e-01,2.06353e-01,-3.10070e-01,1.70761e-01,-4.32682e-02,-2.03963e-01,-2.96341e-01,2.05588e-01,-2.29378e-01,-1.10033e-01,
-1.13041e-01,1.37212e-01,1.65527e-01,2.19109e-01,-5.86514e-02,-7.80373e-02,-4.78008e-02,-2.99869e-01,9.09787e-02,-2.71579e-01,2.00121e-01,-6.67924e-02,1.48848e-01,8.64173e-02,-8.76733e-02,1.08525e-01,1.36247e-01,-1.35911e-01,1.30358e-01,-3.81167e-02,-3.24091e-01,-2.52246e-01,-2.22290e-02,5.48736e-02,2.25475e-01,1.00210e-01,-1.61545e-01,-5.59082e-02,-7.86604e-02,1.79624e-01,
8.33324e-02,3.48459e-03,2.75438e-02,7.78978e-03,9.88611e-02,-1.09463e-01,-3.96943e-01,2.62064e-02,-7.41922e-02,-2.73552e-02,2.76588e-01,-7.32448e-02,-2.41403e-01,3.31762e-01,9.80821e-02,2.74404e-01,-2.75403e-01,-8.66287e-02,-1.89366e-02,8.29322e-02,-9.67127e-03,6.92270e-02,-2.77637e-01,1.77960e-01,3.66601e-01,3.09530e-01,-8.83044e-02,1.71216e-01,-1.25284e-01,8.86177e-02,
-1.12526e-01,-9.52896e-02,6.28055e-02,-2.10479e-01,-2.42823e-01,1.76228e-02,-5.08179e-02,-3.51424e-02,-2.08795e-01,-1.05960e-02,4.65242e-02,-3.03766e-02,4.38426e-02,-1.36047e-01,-6.21943e-02,-1.02531e-01,-2.54975e-01,-1.45983e-01,1.37265e-01,4.63187e-02,-1.20681e-01,-2.24100e-01,6.46007e-02,2.35498e-02,-1.56050e-01,1.09536e-01,-1.13679e-01,1.33509e-02,1.02307e-01,1.01516e-01,
-4.33356e-02,8.59903e-02,-6.70320e-02,-1.69919e-01,-3.73832e-01,7.83345e-02,-2.56693e-01,3.08967e-01,2.01719e-01,-1.19795e-01,2.21205e-01,2.55862e-01,-2.08609e-01,-3.54594e-01,3.20594e-02,2.87995e-01,1.01038e-01,2.13816e-01,-1.22459e-03,1.16803e-01,5.68541e-02,1.65239e-01,1.77452e-01,1.47181e-01,-4.05605e-02,2.83570e-01,2.47215e-01,1.29705e-01,-2.40308e-02,-6.13320e-02,
3.13367e-02,-2.15818e-01,-2.76656e-02,2.12312e-02,1.30538e-01,-6.05240e-02,-3.76987e-01,-2.37383e-01,-9.19788e-03,1.55196e-01,-1.68341e-01,-6.07564e-02,4.38136e-03,1.89234e-01,9.18261e-02,2.56592e-01,-2.36009e-01,-2.97745e-02,-2.61792e-02,6.58372e-02,2.60456e-02,-2.28100e-01,-1.82925e-01,8.50910e-02,-1.57158e-01,1.51650e-01,-1.28858e-01,1.59945e-01,2.79932e-02,9.16007e-03,
2.77475e-01,1.37959e-01,1.17931e-02,-1.49618e-02,-5.64300e-02,1.53079e-01,1.41190e-01,-3.48312e-02,-6.11264e-02,-1.12000e-02,8.77061e-02,1.75367e-01,-1.86371e-01,3.90786e-02,2.15993e-01,3.57149e-03,2.94341e-01,-1.62481e-01,-5.80073e-02,1.13667e-02,4.92182e-02,-1.82993e-01,-4.45569e-02,-1.43247e-01,-9.21106e-02,5.19989e-02,5.45311e-02,-1.90539e-01,-6.27938e-02,-2.07255e-01,
1.64488e-01,2.54931e-01,2.15556e-01,4.92230e-02,-1.35693e-03,8.16653e-02,-5.59114e-02,9.61976e-02,-2.97428e-01,1.24384e-01,4.35427e-03,2.40819e-01,3.79248e-01,2.45158e-02,-4.44738e-02,-9.30700e-03,5.18186e-02,-8.12187e-02,5.20638e-03,-2.37668e-03,-1.61492e-02,-2.84879e-02,-1.25954e-01,-1.31926e-01,2.01298e-01,-6.99015e-02,-9.09039e-02,-1.11990e-01,6.68725e-02,2.22256e-01,
1.17470e-01,6.27690e-01,-3.18992e-01,9.81412e-03,-2.21525e-01,-3.01044e-01,1.49721e-01,1.75529e-01,2.45175e-01,2.57818e-01,-3.44454e-01,2.57857e-01,-2.86595e-01,-1.66503e+00,3.19437e-02,-3.23373e-01,2.03642e-01,1.34527e-01,1.66299e-01,8.64712e-02,1.98660e-01,-3.00103e-01,2.30384e-01,3.71546e-01,-2.55840e-02,7.74649e-02,5.24865e-02,9.32028e-02,1.90666e-01,-2.72028e-01,
-4.28220e-01,-2.10473e-01,-1.91542e-01,9.81721e-02,-2.38104e-01,3.02856e-01,-9.43258e-02,-6.18263e-01,-3.30192e-01,-1.38433e-01,-2.39882e-01,-1.94096e-01,2.02211e-01,1.92721e-01,-9.00220e-02,1.37319e-01,-3.06902e-01,-5.89507e-01,-1.34776e-01,-9.63821e-02,-2.67920e-01,2.49302e-01,2.05726e-01,-5.28145e-02,5.23373e-02,-3.92080e-02,-5.63744e-01,4.09564e-01,-1.83572e-01,3.00029e-01,
-8.45964e-02,1.74158e-02,1.78417e-01,-1.99337e-01,-2.00298e-01,4.35102e-02,-9.91540e-02,9.15089e-03,-1.75868e-01,4.77910e-02,-8.83522e-02,6.62421e-02,7.69257e-02,-1.82128e-01,1.27795e-01,1.15500e-01,-7.25645e-02,-6.73446e-02,-6.31384e-02,2.54313e-01,4.95050e-02,-1.11759e-01,-5.98239e-02,-2.30831e-02,-9.67642e-03,2.28787e-01,-2.03866e-01,7.97144e-02,6.95287e-02,1.86111e-01,
1.44021e-02,4.36101e-02,3.73628e-02,1.46630e-01,-2.37325e-01,-1.55049e-01,-2.20272e-02,-3.19888e-01,-3.39886e-01,4.94604e-03,-7.14708e-02,-7.02112e-02,1.49255e-01,-5.13754e-01,4.72266e-02,-7.04841e-02,-1.91887e-01,-1.57732e-01,-2.10598e-03,2.65473e-01,-2.47682e-02,-2.20189e-01,1.76091e-01,-3.50184e-02,1.73424e-01,-1.80648e-01,8.11643e-02,-3.10032e-02,-8.03835e-02,-2.47121e-01,
-3.27055e-02,1.96829e-01,-1.00819e-01,-9.33894e-02,9.27880e-03,-2.40851e-01,5.91746e-02,-1.15644e-01,1.95824e-01,-2.35548e-01,-2.27449e-01,-7.01141e-02,2.26303e-01,-2.81383e-01,-2.46489e-01,-1.19168e-01,2.15938e-01,-2.22369e-01,2.70093e-01,-7.74501e-02,2.68795e-02,-2.84146e-02,2.18366e-01,-1.98092e-01,1.48194e-01,-2.61335e-01,1.59839e-01,2.08615e-03,-1.46610e-02,1.11364e-01,
-2.93493e-01,6.77337e-02,-2.43137e-01,-2.35498e-01,6.41736e-02,-7.87497e-02,-2.49489e-01,-2.63680e-01,5.67871e-03,2.39553e-01,-3.11465e-02,2.10152e-01,-4.35572e-02,2.27557e-01,-9.72236e-02,-2.39382e-02,7.68774e-02,5.40883e-02,-2.67991e-01,-3.03625e-01,1.59407e-01,2.04563e-02,-2.19554e-01,-1.18337e-01,1.25816e-01,-1.71340e-01,-1.21455e-01,-8.47940e-02,7.78963e-03,-2.51001e-01,
2.09717e-01,
2.45935e-01,
-2.11456e-02,
1.96940e-01,
-8.82989e-02,
-5.45954e-02,
3.04788e-02,
3.29154e-02,
3.66818e-01,
-9.34493e-02,
-2.79739e-01,
-3.28043e-01,
-2.67070e-01,
-1.20661e-01,
1.72466e-01,
-1.60968e-01,
-3.10080e-01,
-2.46179e-01,
1.52988e-01,
2.23263e-01,
5.08514e-02,
1.94577e-01,
1.21852e-01,
3.11177e-02,
-2.06024e-01,
1.68083e-01,
1.88599e-01,
1.50470e-01,
-1.67262e-01,
-1.57882e-01,
1.67637e-01,-1.13970e-01,-5.12108e-01,-9.62935e-02,-2.32113e-02,7.60652e-04,-3.48088e-03,3.83866e-01,-1.57938e-01,5.75382e-02,4.00315e-01,-9.82338e-02,2.37293e-01,1.66477e-02,2.47218e-03,3.41685e-01,-7.41435e-02,-3.78487e-01,-3.64433e-02,-2.91743e-02,2.54221e-02,-4.01164e-02,-5.23704e-02,4.87309e-03,6.35380e-02,1.63336e-02,-2.36196e-01,-2.81095e-02,-2.65677e-01,1.07165e-01,
4.93899e-04,-1.82532e-01,1.32217e-02,-1.83442e-01,1.22109e-01,-2.43777e-01,2.07638e-01,-1.32438e-02,-6.50990e-02,9.96455e-02,-3.57570e-01,-1.08018e-01,-1.14661e-01,9.94701e-02,-7.22360e-02,-1.02916e-02,3.60839e-01,-1.02250e-01,-4.82123e-02,8.02406e-02,4.12058e-02,5.73169e-02,-1.63838e-01,1.89840e-01,2.49690e-02,2.59971e-01,-2.21240e-01,9.43894e-02,-1.21708e-01,-5.54255e-02,
2.08348e-01,-7.53820e-02,-8.68160e-03,-3.24702e-01,-5.79858e-02,9.48897e-03,2.47444e-02,-6.38404e-03,-2.88328e-01,1.41390e-01,7.62207e-02,1.53562e-01,-1.41550e-01,-3.47448e-03,-1.32362e-01,-1.42090e-03,-1.25799e-01,-3.16961e-01,-1.88497e-02,-3.72839e-01,4.53482e-02,-4.49472e-01,-2.00914e-01,-1.85451e-01,5.31379e-02,3.22426e-02,3.99582e-03,-5.53775e-02,-7.93856e-02,-3.07430e-01,
-9.45716e-03,-1.05738e-01,-1.17313e-02,-4.29470e-01,-6.63847e-02,-9.60341e-02,4.86368e-01,1.22869e-02,-3.81056e-01,4.30980e-02,3.73749e-01,-2.58452e-03,2.48413e-02,2.29766e-01,-1.14135e-01,-6.97004e-03,3.34374e-01,2.67766e-01,9.97325e-02,2.48920e-02,-2.01544e-01,6.32523e-02,1.11543e-01,6.90482e-02,3.15154e-02,-1.50536e-01,-5.98406e-02,-1.42413e-02,2.40132e-01,3.42326e-02,
2.23448e-01,-1.11852e-01,-1.00619e-02,-1.60215e-01,-7.60045e-02,2.15197e-01,-2.77715e-01,-3.56265e-03,-4.17803e-01,1.12712e-01,8.92867e-02,-1.06373e-01,-1.66642e-02,2.21318e-02,1.27632e-02,-3.96744e-03,-1.15070e-01,4.42171e-02,-2.05884e-01,-1.29328e-01,1.93709e-01,-2.60722e-01,6.52103e-02,-2.49547e-01,5.61758e-02,-1.13167e-02,-3.85839e-01,5.33816e-02,2.79153e-01,-4.47783e-02,
2.06381e-01,
1.33309e-01,
4.55616e-01,
2.35581e-01,
4.30661e-01,
